{"layers": [{"batch_input_shape": [null, 1], "class_name": "Dense", "units": 20, "activation": "relu", "weights": [[[-0.4808753430843353, 0.32682228088378906, -0.20625434815883636, -0.41339564323425293, -0.38111257553100586, -0.19686082005500793, -0.28868305683135986, -0.3995749354362488, -0.32749858498573303, 0.4510957598686218, -0.436197966337204, 0.445948988199234, 0.23499450087547302, 0.19240286946296692, -0.4460189640522003, 0.22106938064098358, 0.03625421226024628, 0.06215386465191841, 0.06460906565189362, 0.4144074618816376]], [-0.027778418734669685, -0.056608136743307114, -0.07874692976474762, 0.03324691578745842, 0.012817113660275936, -0.02502981387078762, 0.04891551285982132, -0.040549200028181076, 0.04787854105234146, 0.04128701984882355, -0.033589791506528854, 0.033225443214178085, -0.033968210220336914, -0.031976986676454544, 0.013339163735508919, -0.007632250897586346, 0.06701386719942093, -0.040853217244148254, 0.1076480969786644, 0.021198272705078125]]}, {"class_name": "Dense", "units": 20, "activation": "relu", "weights": [[[0.10735651850700378, 0.06123710796236992, -0.03784414008259773, -0.28667470812797546, 0.3344676196575165, 0.060794055461883545, -0.06237078085541725, -0.08720966428518295, -0.12144237756729126, -0.15023590624332428, 0.08669775724411011, 0.1571180820465088, -0.33075204491615295, -0.22950048744678497, 0.2864640951156616, 0.19802667200565338, -0.3171890377998352, 0.14304174482822418, -0.2890007793903351, 0.06537484377622604], [0.20712611079216003, -0.3850349187850952, 0.33696335554122925, -0.17826233804225922, -0.20612762868404388, 0.2632276117801666, 0.3639880418777466, -0.32305029034614563, -0.1275714933872223, 0.3158072829246521, -0.18901920318603516, 0.2980096638202667, 0.16119050979614258, 0.3571847081184387, 0.35737842321395874, -0.023382583633065224, -0.170662060379982, -0.23179815709590912, -0.25949618220329285, 0.11596603691577911], [-0.08848296850919724, 0.0628347247838974, -0.2618424892425537, 0.2695334851741791, -0.3516457974910736, -0.2398999035358429, 0.36326533555984497, -0.35079115629196167, 0.06977464258670807, -0.11687269806861877, 0.06935924291610718, -0.11427698284387589, -0.14747565984725952, -0.10234370827674866, 0.08586433529853821, 0.17010793089866638, 0.27205803990364075, -0.29053592681884766, -0.36056816577911377, -0.0031853497494012117], [0.28347328305244446, 0.17017054557800293, -0.30157923698425293, -0.4021153450012207, -0.09092088043689728, -0.11676457524299622, 0.20596644282341003, -0.2701713442802429, -0.1706845611333847, 0.3398696184158325, 0.004036141559481621, 0.06232476606965065, 0.1567935049533844, 0.294184148311615, -0.3819401264190674, 0.02855859138071537, -0.3506377339363098, 0.380526602268219, -0.08856255561113358, -0.21730978786945343], [-0.11289317160844803, -0.22499004006385803, -0.2014540284872055, 0.0019095689058303833, 0.25377488136291504, -0.3844090402126312, 0.08914961665868759, -0.05304150655865669, 0.3314580023288727, -0.4105854630470276, 0.049738943576812744, 0.04320625588297844, 0.21106857061386108, 0.19614028930664062, -0.30252206325531006, -0.009070271626114845, 0.09469720721244812, 0.38949671387672424, -0.20546242594718933, 0.15605749189853668], [0.0800650417804718, -0.09366901963949203, -0.3363294005393982, 0.1677432656288147, 0.3138265609741211, -0.35524827241897583, -0.11678808182477951, -0.008560667745769024, -0.3933355510234833, 0.08586827665567398, 0.07585752010345459, 0.10156424343585968, -0.23905950784683228, 0.32134050130844116, 0.31975942850112915, -0.34117960929870605, 0.03736504539847374, -0.1216338500380516, 0.00024940480943769217, 0.2773596942424774], [-0.3190966248512268, 0.17491412162780762, -0.0064126309007406235, 0.2537918984889984, -0.16863010823726654, -0.19232214987277985, -0.21060284972190857, 0.14165188372135162, 0.19662629067897797, 0.047208044677972794, -0.027150848880410194, 0.11603941023349762, 0.07842519879341125, -0.3792651891708374, -0.33204028010368347, -0.026997016742825508, -0.1479441225528717, 0.17851224541664124, 0.34959676861763, 0.1392873376607895], [-0.3719661235809326, -0.3579274117946625, 0.2894900143146515, 0.12755054235458374, -0.0935969278216362, -0.12048694491386414, 0.09300502389669418, 0.1964985579252243, 0.3604205846786499, 0.23341690003871918, 0.0016969144344329834, -0.17032204568386078, 0.03823985159397125, -0.1848982870578766, 0.09459513425827026, -0.18150949478149414, 0.21570377051830292, -0.2362097054719925, -0.33662885427474976, 0.33971497416496277], [0.1111941933631897, -0.3108848035335541, -0.4176424741744995, -0.20009580254554749, 0.28468847274780273, 0.04289206862449646, -0.3778177797794342, 0.16568922996520996, 0.039156291633844376, 0.19903497397899628, 0.10149573534727097, -0.07519523054361343, 0.2699425518512726, -0.1090361624956131, -0.33831027150154114, 0.04624291881918907, 0.166314497590065, 0.004943274427205324, 0.3852214515209198, 0.11414512246847153], [0.2715928852558136, -0.3247580826282501, 0.13865309953689575, -0.2168036699295044, -0.276297003030777, 0.22852768003940582, 0.017816558480262756, 0.30475467443466187, -0.2772893011569977, -0.3142758309841156, -0.1842244565486908, -0.04316166043281555, -0.01237538456916809, 0.20292535424232483, -0.023309078067541122, 0.22365818917751312, 0.14339864253997803, 0.03339985013008118, 0.1619633585214615, 0.016146821901202202], [-0.0355643555521965, 0.3677663505077362, 0.03560132160782814, 0.3372131586074829, 0.10507447272539139, 0.21064066886901855, -0.359845906496048, -0.032147400081157684, -0.15583452582359314, -0.025224359706044197, -0.1832783818244934, -0.3046107590198517, -0.24773474037647247, 0.15868937969207764, 0.26508626341819763, 0.30875226855278015, 0.13021740317344666, 0.14842522144317627, -0.06260654330253601, -0.023838074877858162], [0.33844274282455444, -0.23223502933979034, 0.11117326468229294, -0.1568237841129303, 0.0374925322830677, 0.3305729031562805, -0.04018483683466911, -0.22187530994415283, -0.14449530839920044, -0.31742042303085327, -0.01668223924934864, -0.2777194380760193, 0.15419751405715942, 0.21110236644744873, -0.38341569900512695, -0.114485003054142, 0.02144981361925602, 0.10448811203241348, 0.17202149331569672, 0.25020483136177063], [0.16681361198425293, -0.252475380897522, 0.165205180644989, -0.3163614869117737, 0.12533411383628845, 0.05242057144641876, 0.255738228559494, 0.29967349767684937, 0.19582736492156982, 0.1720249056816101, -0.16305601596832275, 0.022613290697336197, 0.010895710438489914, 0.23522590100765228, 0.30723586678504944, -0.04891651123762131, 0.23488686978816986, 0.230335533618927, -0.1332833617925644, 0.07825591415166855], [0.3185766041278839, -0.21382462978363037, 0.3641243875026703, -0.2907627820968628, -0.28733062744140625, 0.06440568715333939, 0.3527348041534424, -0.1259000301361084, -0.02389875054359436, -0.003293842077255249, -0.1565718799829483, 0.1057378426194191, 0.3944559097290039, -0.1387563943862915, -0.03195380046963692, -0.3585771918296814, 0.3160606026649475, 0.025325478985905647, 0.13029533624649048, -0.07801562547683716], [0.32014361023902893, -0.30794447660446167, 0.1839221566915512, -0.08911696821451187, 0.11195477098226547, 0.03430896997451782, 0.27567073702812195, -0.05696230009198189, -0.2311490923166275, -0.20654615759849548, -0.17542114853858948, 0.06039358302950859, -0.0014598845737054944, -0.04266121983528137, 0.3208653926849365, 0.06657522171735764, 0.016226751729846, 0.421975702047348, 0.25041794776916504, 0.17989590764045715], [0.12638650834560394, 0.110328309237957, -0.10025341063737869, -0.1569019854068756, -0.20842397212982178, 0.26986774802207947, 0.08026062697172165, -0.12190893292427063, -0.015596896409988403, -0.3356870412826538, -0.0398920476436615, 0.04063006862998009, -0.004937324672937393, 0.3070894479751587, -0.25449880957603455, -0.010114503093063831, -0.21099098026752472, -0.16563314199447632, -0.0037249254528433084, 0.30766287446022034], [-0.2135828733444214, -0.04136720672249794, 0.2362636774778366, 0.09159070253372192, 0.2123481035232544, -0.20910397171974182, -0.3243792951107025, 0.3380979895591736, -0.010661929845809937, -0.10769152641296387, -0.22356778383255005, 0.0456622838973999, 0.3792284429073334, -0.30156686902046204, -0.39744141697883606, -0.4892442226409912, 0.08346575498580933, 0.30968502163887024, 0.3199940025806427, -0.02990538813173771], [-0.06934741139411926, -0.370832622051239, -0.1129009947180748, -0.12699437141418457, -0.09406258165836334, 0.2169874757528305, 0.17733092606067657, 0.03399714455008507, 0.21943914890289307, -0.24095755815505981, 0.04727846384048462, -0.08421731740236282, 0.057376742362976074, 0.29413461685180664, 0.19009704887866974, 0.024568451568484306, -0.06781385093927383, 0.36889517307281494, -0.3151286840438843, -0.16228389739990234], [-0.26825833320617676, 0.15962737798690796, 0.15843850374221802, -0.047369617968797684, 0.18698173761367798, -0.22516098618507385, -0.11524070799350739, -0.06782402843236923, 0.02409440279006958, -0.32632485032081604, 0.13208135962486267, 0.4795103967189789, 0.07914264500141144, -0.18450051546096802, -0.14675703644752502, -0.42039754986763, 0.0670110210776329, -0.10623324662446976, 0.2557925581932068, -0.5930444598197937], [0.3524184823036194, -0.037317682057619095, 0.12529751658439636, -0.0376737117767334, 0.4264744520187378, -0.2318498194217682, -0.023773107677698135, 0.2855072617530823, -0.014444142580032349, -0.02538403868675232, 0.20846718549728394, -0.3391953408718109, -0.099854476749897, 0.0021615419536828995, 0.1764087975025177, 0.01572485826909542, 0.3172391951084137, -0.13600783050060272, 0.038694366812705994, -0.1677817702293396]], [-0.0054882303811609745, -0.012049995362758636, 0.017611641436815262, -0.02674582228064537, -0.01745546981692314, -0.041460663080215454, -0.02651923894882202, 0.053576476871967316, -0.019792379811406136, -0.03550425171852112, -0.00536540849134326, 0.018719909712672234, -0.017996808513998985, -0.017474764958024025, -0.03395043686032295, 0.003756839781999588, -0.025280555710196495, 0.045527201145887375, 0.0635855421423912, 0.03460446000099182]]}, {"class_name": "Dense", "units": 20, "activation": "relu", "weights": [[[0.34631478786468506, 0.2627439796924591, 0.193015918135643, -0.18254774808883667, 0.05296913906931877, -0.11788663268089294, -0.23152770102024078, 0.25277259945869446, -0.26079443097114563, 0.06905815005302429, 0.26114678382873535, -0.13825677335262299, -0.060703095048666, -0.13467246294021606, 0.10058671981096268, -0.2589213252067566, 0.03886248543858528, 0.042674530297517776, 0.0020665887277573347, 0.2545410394668579], [0.13489623367786407, 0.29545214772224426, 0.19415275752544403, -0.31967759132385254, 0.010998605750501156, 0.28296107053756714, 0.13229051232337952, 0.3789813220500946, -0.15987487137317657, -0.17242325842380524, -0.26888328790664673, -0.3263711631298065, -0.30059534311294556, 0.00395046453922987, -0.006654693745076656, -0.29549288749694824, -0.25837305188179016, -0.14645299315452576, 0.2989189028739929, -0.36533910036087036], [-0.07293535023927689, -0.33429789543151855, -0.2140887826681137, 0.2583204209804535, 0.34191831946372986, -0.1982414871454239, 0.25679367780685425, 0.1951301246881485, -0.04485480114817619, 0.1847863346338272, -0.056514672935009, -0.1772107183933258, 0.3103063702583313, 0.3363196849822998, -0.13165470957756042, 0.2142776995897293, -0.06528248637914658, 0.20568501949310303, 0.17764607071876526, -0.06673233956098557], [0.3135583698749542, -0.039916664361953735, -0.35350218415260315, 0.0567651093006134, -0.21883521974086761, 0.2784350514411926, -0.1912986785173416, -0.23609045147895813, -0.27173087000846863, -0.04524219036102295, 0.030885683372616768, 0.12743890285491943, 0.3461383283138275, 0.0935240164399147, -0.06029615178704262, 0.022141730412840843, -0.2039211243391037, 0.3250097632408142, -0.16630376875400543, -0.32645606994628906], [0.1812198907136917, -0.009355365298688412, -0.040757566690444946, -0.23123526573181152, 0.2793639302253723, 0.16318875551223755, 0.07622072100639343, -0.09363846480846405, 0.4241219162940979, 0.2265302687883377, 0.3356916904449463, -0.10668352246284485, 0.3165578246116638, 0.3111153244972229, -0.05223787575960159, 0.2300194948911667, 0.03592795506119728, 0.2918351888656616, -0.1492357850074768, -0.13900455832481384], [-0.288895845413208, 0.06504663079977036, 0.3602481186389923, 0.008203328587114811, -0.3416752517223358, 0.09568663686513901, 0.19760043919086456, 0.04271155595779419, -0.3208734095096588, 0.024142935872077942, -0.1693926602602005, -0.02528580278158188, 0.3118112087249756, -0.14376360177993774, -0.07278916984796524, 0.4554583728313446, 0.372958779335022, -0.23077845573425293, -0.12500357627868652, 0.2737133502960205], [-0.3380570411682129, 0.04554871469736099, 0.3933885395526886, 0.3299151360988617, -0.36358126997947693, 0.2798376679420471, 0.16516931354999542, 0.14905968308448792, 0.0890732854604721, 0.08463607728481293, 0.05722632631659508, 0.14953932166099548, 0.08887499570846558, -0.40755704045295715, 0.3602848947048187, -0.1663077473640442, 0.26163816452026367, -0.05225188657641411, 0.24272920191287994, -0.12749700248241425], [0.15871575474739075, 0.007545615080744028, 0.15357135236263275, 0.1318843811750412, 0.049365244805812836, -0.05994535610079765, 0.16432757675647736, 0.07306043058633804, 0.421548455953598, 0.20871159434318542, 0.08102694153785706, -0.0264129638671875, -0.22713616490364075, 0.29380008578300476, 0.08298631012439728, -0.05097832903265953, 0.2583808898925781, -0.29498350620269775, 0.3705334961414337, 0.19299830496311188], [0.0769166350364685, -0.08459792286157608, 0.27725696563720703, 0.31520307064056396, 0.32172703742980957, 0.2977222204208374, 0.15101376175880432, -0.10637050867080688, -0.3709884583950043, -0.34509649872779846, 0.059549979865550995, 0.0014145406894385815, 0.3338947296142578, -0.3402112126350403, -0.2085811048746109, -0.30483612418174744, -0.1945728361606598, 0.2769847810268402, -0.15828827023506165, 0.38800737261772156], [-0.2487589567899704, -0.3226635456085205, -0.15299107134342194, -0.2864606976509094, 0.31255748867988586, 0.19830888509750366, 0.4080433249473572, 0.135123610496521, 0.1448536366224289, 0.1920376420021057, 0.10553397238254547, 0.3116956949234009, -0.16651086509227753, 0.07290465384721756, -0.3132552206516266, -0.09190385043621063, 0.3199301064014435, -0.33626022934913635, -0.11008653044700623, 0.28259289264678955], [0.31745463609695435, 0.19054178893566132, 0.2808600664138794, -0.25698864459991455, 0.3488158583641052, -0.06191781163215637, -0.15682727098464966, -0.04936133697628975, -0.056511688977479935, -0.025316551327705383, 0.29012995958328247, -0.20117494463920593, 0.2607887387275696, 0.13933303952217102, -0.32259827852249146, -0.0491604320704937, -0.22604146599769592, 0.26019030809402466, -0.300576388835907, -0.14914239943027496], [0.2525811493396759, 0.12326110154390335, 0.037916578352451324, -0.03324415534734726, 0.20747070014476776, -0.02562985010445118, -0.11943566799163818, -0.01468667108565569, 0.47689634561538696, 0.5704801082611084, 0.17086312174797058, 0.07108740508556366, 0.22685740888118744, -0.25077497959136963, 0.256188303232193, 0.15539629757404327, 0.08400589227676392, 0.08253733813762665, -0.32980912923812866, 0.30446118116378784], [0.3291541635990143, -0.3433682918548584, 0.35837650299072266, 0.2876667380332947, 0.004944890271872282, -0.06428148597478867, -0.2834007143974304, 0.1501280963420868, -0.008548309095203876, -0.008282622322440147, 0.12360825389623642, 0.15339075028896332, -0.13645575940608978, 0.0205034501850605, 0.2768617868423462, -0.22281968593597412, -0.053743552416563034, -0.350204735994339, 0.2215937376022339, -0.12217126786708832], [-0.1135934367775917, 0.22866645455360413, -0.10164914280176163, 0.09204726666212082, -0.1797003149986267, 0.26510271430015564, 0.2434529811143875, -0.29634857177734375, 0.27780628204345703, 0.17110691964626312, -0.29338207840919495, -0.32654210925102234, 0.35342657566070557, -0.34060612320899963, -0.14292718470096588, -0.24002774059772491, 0.03739995136857033, -0.2948121428489685, 0.3782413899898529, 0.11192064732313156], [-0.23371924459934235, 0.36057063937187195, 0.2626904249191284, -0.3625609874725342, 0.026035739108920097, 0.06957868486642838, 0.2998502850532532, -0.16957487165927887, -0.3311478793621063, -0.19791506230831146, -0.07084102928638458, -0.14183172583580017, -0.1826474815607071, -0.13006997108459473, -0.0950193777680397, 0.09844285994768143, 0.15655392408370972, 0.25995883345603943, -0.17946115136146545, 0.35418033599853516], [0.010458406060934067, 0.18580330908298492, 0.11248475313186646, -0.14631116390228271, 0.10438472777605057, -0.2186099886894226, 0.026705872267484665, -0.2843274772167206, -0.2448190450668335, -0.13073857128620148, 0.02751769870519638, 0.0821932926774025, -0.12356624007225037, 0.3255646526813507, -0.27041974663734436, 0.11399751901626587, 0.24312105774879456, -0.396791011095047, -0.25746774673461914, 0.2946456968784332], [-0.326772540807724, -0.003061159048229456, -0.066832035779953, 0.2513331472873688, 0.051713727414608, 0.17928113043308258, -0.19216270744800568, -0.14331191778182983, -0.06746404618024826, -0.12806542217731476, -0.15955345332622528, 0.14803440868854523, -0.31807035207748413, 0.37665849924087524, 0.12996061146259308, 0.015669075772166252, 0.2078000009059906, -0.005903501994907856, 0.33897241950035095, -0.055528197437524796], [-0.04276571422815323, -0.08512226492166519, 0.3212006390094757, -0.3049009442329407, 0.3762989938259125, 0.02503572404384613, 0.2992963194847107, -0.23204372823238373, 0.15409345924854279, -0.07614172995090485, -0.36587685346603394, 0.4291568994522095, -0.07922891527414322, -0.06297541409730911, 0.36542657017707825, 0.22287094593048096, 0.004394049756228924, 0.23972007632255554, 0.028400642797350883, 0.04306381195783615], [0.1026492491364479, 0.15407003462314606, -0.0017933160997927189, 0.050213832408189774, -0.22655022144317627, -0.3460454046726227, 0.27178916335105896, 0.0021405606530606747, 0.4048457741737366, 0.2912207841873169, 0.292404443025589, -0.15902365744113922, -0.10195081681013107, 0.2629833221435547, 0.12592418491840363, 0.38482117652893066, 0.21399110555648804, 0.15459215641021729, -0.1299232393503189, 0.3449355363845825], [0.32622721791267395, 0.14178869128227234, 0.20501507818698883, -0.10091397911310196, 0.446747750043869, -0.04734053835272789, -0.2333674430847168, -0.3427082300186157, 0.01790093258023262, -0.26114165782928467, 0.1211191862821579, 0.283858060836792, -0.028782302513718605, -0.009584994986653328, 0.21005134284496307, 0.022838544100522995, 0.02046537958085537, -0.3762740194797516, -0.23764938116073608, -0.03177308663725853]], [0.04106895253062248, 0.041041307151317596, -0.03687409311532974, -0.023050891235470772, 0.047903891652822495, -0.025940608233213425, 0.042551711201667786, 0.02917529083788395, 0.043966904282569885, 0.04924454540014267, -0.02878471091389656, 0.03899972885847092, -0.0418941006064415, 0.043353814631700516, 0.047861259430646896, 0.04423035308718681, -0.0353204607963562, -0.022126762196421623, -0.02694331295788288, 0.04144906625151634]]}, {"class_name": "Dense", "units": 1, "activation": "linear", "weights": [[[0.3282630741596222], [0.28040799498558044], [-0.14208370447158813], [-0.36537981033325195], [0.08535955846309662], [-0.26162856817245483], [0.12244869768619537], [0.3428327739238739], [0.2632155120372772], [0.4960232377052307], [-0.39515799283981323], [0.3315218389034271], [-0.04659662023186684], [0.2129790335893631], [0.43326157331466675], [0.2598738968372345], [-0.2639279067516327], [-0.46597176790237427], [-0.5335395932197571], [0.1511448472738266]], [0.04035675898194313]]}]}