{"layers": [{"batch_input_shape": [null, 102], "class_name": "InputLayer"}, {"class_name": "Dense", "units": 10, "activation": "relu", "weights": [[[0.02598542906343937, 0.10742420703172684, 0.1108512356877327, -0.2895030081272125, 0.3622344732284546, 0.30498847365379333, -0.07995609194040298, 0.39241647720336914, -0.2990221381187439, 0.017349475994706154], [-0.1388702541589737, 0.1552341729402542, -0.22481276094913483, -0.1115027666091919, 0.10428721457719803, -0.2539728879928589, 0.22541646659374237, -0.04839138686656952, -0.020139139145612717, -0.10466765612363815], [0.16604173183441162, -0.04240039363503456, 0.046407300978899, 0.02855846658349037, -0.15317168831825256, 0.13618683815002441, 0.08627880364656448, 0.08819565922021866, 0.39496099948883057, 0.0905907154083252], [-0.3328697681427002, 0.1898825317621231, 0.09792772680521011, -0.11935462057590485, 0.07221222668886185, 0.20405736565589905, -0.1541035771369934, 0.3143213391304016, -0.15223859250545502, -0.14997273683547974], [-0.34322696924209595, 0.3751415014266968, 0.03137126937508583, 0.32200905680656433, 0.3360757529735565, 0.0387614406645298, 0.3132351338863373, -0.06799786537885666, 0.02270296961069107, 0.09248507022857666], [-0.1918887048959732, -0.35790225863456726, -0.19590812921524048, 0.040866654366254807, -0.2930138111114502, -0.33871060609817505, 0.21034274995326996, -0.11885439604520798, -0.11503558605909348, 0.041077036410570145], [0.06193673983216286, 0.2768474817276001, 0.050697822123765945, -0.28665995597839355, -0.08068244159221649, 0.3440248668193817, 0.11666350066661835, 0.38593819737434387, 0.035363782197237015, 0.1583566516637802], [0.02662619575858116, -0.011539209634065628, 0.16266049444675446, -0.24314451217651367, -0.11632714420557022, 0.1550537645816803, 0.25766366720199585, 0.18947790563106537, -0.24342145025730133, 0.17436325550079346], [0.10373510420322418, -0.014496181160211563, -0.2644188106060028, -0.3321092426776886, -0.2718070149421692, -0.2236074060201645, -0.06190181523561478, -0.15049199759960175, 0.44234561920166016, -0.05251128971576691], [-0.2959916591644287, 0.18572625517845154, 0.2546803057193756, 0.07202867418527603, 0.11128702759742737, 0.036619022488594055, -0.17371954023838043, -0.04810250177979469, -0.1478315144777298, -0.021713441237807274], [-0.3485345244407654, 0.1940237134695053, -0.10186183452606201, -0.05584022402763367, 0.06295239180326462, 0.020183013752102852, -0.10814914107322693, 0.29640743136405945, 0.24174393713474274, 0.15269030630588531], [-0.08399859815835953, -0.5310732126235962, -0.18453481793403625, 0.06953061372041702, -0.2468995302915573, 0.02795955166220665, 0.2174001932144165, -0.25187113881111145, -0.06547383964061737, -0.09738317131996155], [0.2188306301832199, -0.030056137591600418, -0.12506969273090363, -0.26866546273231506, 0.28875312209129333, -0.005944252014160156, 0.12391921877861023, 0.06118777021765709, -0.14711429178714752, 0.07375257462263107], [0.05146290734410286, 0.33346107602119446, -0.15332256257534027, -0.3057011663913727, 0.22861771285533905, -0.024026477709412575, -0.012313662096858025, 0.08679862320423126, 0.035481903702020645, -0.0077207149006426334], [0.3313086926937103, -0.03123307228088379, 0.0849514976143837, -0.3137929141521454, -0.006989064626395702, 0.13945648074150085, 0.27589237689971924, -0.06157903000712395, 0.1829785257577896, -0.02441335655748844], [0.01652771234512329, 0.23674049973487854, -0.06864990293979645, -0.18221725523471832, 0.1421879678964615, 0.061596281826496124, -0.09595590084791183, -0.12444815784692764, 0.14659132063388824, -0.26430559158325195], [0.06442596018314362, 0.03529149666428566, -0.026636695489287376, 0.37294402718544006, 0.018880922347307205, 0.009707387536764145, -0.1322069764137268, 0.16080033779144287, 0.3064728379249573, -0.018867729231715202], [-0.053426217287778854, -0.15640757977962494, -0.03314629942178726, 0.09807999432086945, -0.32445403933525085, -0.18729229271411896, 0.11787355691194534, -0.2815518379211426, -0.09423152357339859, -0.2434731125831604], [0.02701510675251484, 0.09458611905574799, -0.0807170644402504, -0.18389646708965302, 0.09817750006914139, 0.16456305980682373, -0.13667024672031403, -0.15634936094284058, 0.150079607963562, 0.11680252850055695], [-0.09181677550077438, 0.2568487823009491, 0.007643129210919142, 0.09791108965873718, 0.10881853848695755, -0.2740378677845001, -0.15764281153678894, -0.1899207979440689, -0.05561402440071106, 0.018681475892663002], [0.3199920058250427, 0.08375252038240433, -0.22372978925704956, -0.35962027311325073, 0.14884522557258606, 0.11945614963769913, 0.029568206518888474, -0.05792684108018875, 0.5252487659454346, -0.027837900444865227], [0.12741728127002716, -0.14515633881092072, -0.15700411796569824, -0.007266020867973566, 0.06067638099193573, -0.18847408890724182, -0.308719277381897, -0.17044422030448914, 0.09787178039550781, -0.17115776240825653], [-0.14054206013679504, 0.11565414816141129, -0.03446623310446739, 0.21657580137252808, -0.1873130202293396, -0.13400916755199432, 0.28134235739707947, -0.16751722991466522, 0.3393159508705139, -0.03238368034362793], [-0.13892611861228943, -0.32050633430480957, 0.07172646373510361, 0.12215505540370941, -0.0316532626748085, -0.20169298350811005, 0.0853995829820633, -0.009041528217494488, 0.13560925424098969, -0.05098491162061691], [0.050540320575237274, 0.12444119155406952, 0.12628595530986786, -0.062257371842861176, 0.04661386460065842, 0.13737982511520386, 0.21611081063747406, 0.09984047710895538, -0.21441347897052765, 0.039857860654592514], [-0.32067885994911194, 0.3047465682029724, -0.13566374778747559, -0.2442798763513565, -0.09892988204956055, -0.1232304498553276, -0.051144879311323166, -0.25014498829841614, -0.14650902152061462, 0.19256459176540375], [0.10309290885925293, -0.2493935525417328, 0.008169102482497692, -0.1961652785539627, 0.14800316095352173, 0.13683883845806122, 0.03700714930891991, 0.12784364819526672, 0.34885045886039734, -0.11801972985267639], [0.30505597591400146, -0.21879009902477264, -0.047083158046007156, -0.16616027057170868, -0.028034808114171028, -0.1626039743423462, 0.06671297550201416, -0.032554931938648224, -0.1340097337961197, 0.02796410396695137], [0.1307801455259323, 0.02588411420583725, 0.13071811199188232, 0.2041209191083908, 0.11984986066818237, 0.17610907554626465, -0.04662168771028519, -0.03598574548959732, -0.002552671590819955, 0.13470254838466644], [-0.19203400611877441, -0.25365498661994934, 0.02474544569849968, 0.29095619916915894, -0.03868071362376213, -0.06796985119581223, -0.1150965616106987, -0.11595867574214935, 0.15145479142665863, -0.20189180970191956], [-0.07933013141155243, -0.046790771186351776, 0.24022933840751648, 0.030731940641999245, 0.007567384280264378, -0.019476162269711494, 0.19731824100017548, 0.27360421419143677, 0.12183727324008942, 0.16457830369472504], [0.02468322031199932, 0.47077426314353943, -0.11442141234874725, -0.011384516954421997, 0.15254853665828705, -0.04451969638466835, -0.15131206810474396, -0.11443127691745758, -0.3645873963832855, 0.07656700909137726], [-0.05110485479235649, -0.010757338255643845, 0.15825046598911285, -0.38322991132736206, 0.21014748513698578, 0.19312264025211334, 0.08539077639579773, 0.10406128317117691, 0.24409985542297363, 0.06497107446193695], [0.17307047545909882, 0.005983596667647362, 0.06004894897341728, -0.13479405641555786, -0.25802040100097656, -0.22187037765979767, -0.10129629820585251, -0.09738647192716599, 0.08037185668945312, -0.01537971943616867], [0.05007239803671837, 0.1172906905412674, 0.06617975980043411, 0.027744939550757408, -0.04860661178827286, -0.18795514106750488, -0.10966014862060547, -0.1353944092988968, -0.0583948940038681, 0.050920270383358], [-0.3233584761619568, -0.4463914930820465, 0.07321551442146301, 0.18089941143989563, 0.09559512138366699, 0.034761909395456314, -0.15657374262809753, 0.015535018406808376, -0.023692410439252853, -0.28960034251213074], [-0.13326670229434967, 0.007276298478245735, 0.25286808609962463, 0.13327370584011078, 0.22276504337787628, -0.09174265712499619, 0.03408553823828697, 0.11026313155889511, -0.10854162275791168, 0.18038105964660645], [-0.22340892255306244, 0.25667160749435425, -0.06250174343585968, -0.06349822133779526, 0.2068192958831787, 0.18604105710983276, -0.07117611914873123, 0.09022750705480576, 0.0476372167468071, -0.0057848719879984856], [0.12247507274150848, 0.0738048404455185, 0.2808838486671448, -0.2677912414073944, -0.09481009840965271, 0.14370094239711761, 0.05441999062895775, 0.044470541179180145, 0.32140445709228516, 0.05704014003276825], [0.22955897450447083, -0.31715938448905945, -0.1273091435432434, -0.1440943330526352, -0.22424612939357758, 0.04438551887869835, 0.04763033986091614, -1.4658060536021367e-05, 0.14668117463588715, 0.018262585625052452], [-0.35269948840141296, 0.2050366848707199, 0.27278342843055725, 0.13464927673339844, -0.0894075259566307, 0.2057051658630371, -0.007606342434883118, 0.10970474034547806, 0.02405613102018833, 0.0501251146197319], [-0.02858688496053219, -0.268972784280777, -0.16560202836990356, -0.0007707217009738088, -0.17143464088439941, 0.08701631426811218, -0.15855443477630615, 0.0020497338846325874, -0.11865843832492828, -0.009580844081938267], [-0.29941755533218384, 0.4205767512321472, 0.06020340695977211, -0.010836531408131123, 0.1302429735660553, 0.04222254827618599, 0.0831596702337265, -0.026373814791440964, -0.22038711607456207, -0.005896885879337788], [-0.3998725414276123, 0.5401942729949951, 0.21726854145526886, 0.08526880294084549, 0.20965132117271423, 0.07943800836801529, 0.05611415207386017, 0.17975014448165894, -0.26768746972084045, 0.09835940599441528], [0.1614147424697876, 0.17380769550800323, 0.12955938279628754, -0.2360839545726776, 0.12248250097036362, 0.21483300626277924, 0.12067405134439468, 0.20757491886615753, 0.42939943075180054, 0.12786084413528442], [0.38350486755371094, -0.287778377532959, -0.2855563163757324, 0.12367755174636841, -0.1942925751209259, -0.09931286424398422, -0.08323250710964203, 0.23313851654529572, 0.10326018184423447, 0.16722175478935242], [-0.32310429215431213, 0.018600428476929665, -0.07626587152481079, 0.28360000252723694, 0.06329602748155594, -0.016430262476205826, -0.10944360494613647, -0.08555001020431519, -0.06056186184287071, 0.00941040925681591], [-0.027314728125929832, -0.1719723790884018, -0.2271171361207962, 0.2006695419549942, 0.009634038433432579, -0.054063595831394196, -0.09570052474737167, -0.22620585560798645, -0.06452929973602295, 0.04584507644176483], [-0.25746333599090576, 0.30034005641937256, 0.11683795601129532, -0.05971676483750343, -0.04863948002457619, 0.15859293937683105, -0.08637027442455292, -0.03290701285004616, -0.06666496396064758, 0.24062593281269073], [-0.21368475258350372, 0.508171558380127, -0.12089031934738159, -0.05626951530575752, -0.03247346729040146, -0.007741685025393963, 0.16466206312179565, -0.13750624656677246, -0.19047723710536957, -0.16740597784519196], [0.2071751356124878, 0.2345656454563141, -0.06894607096910477, -0.11181437224149704, -0.04642985388636589, 0.16395407915115356, 0.28341978788375854, -0.14726899564266205, 0.3612841069698334, -0.07212227582931519], [0.26868611574172974, -0.23270867764949799, -0.1919352263212204, 0.15168297290802002, -0.04002668708562851, 0.005694779567420483, -0.07038216292858124, -0.15235085785388947, 0.3068682551383972, 0.17986539006233215], [-0.2007770836353302, 0.07870885729789734, 0.12171187251806259, 0.14382819831371307, 0.03371216356754303, 0.18999053537845612, 0.17501524090766907, 0.23609286546707153, 0.3258947432041168, 0.2631223201751709], [0.06319403648376465, -0.37496376037597656, -0.10328022390604019, -0.042994365096092224, 0.11508985608816147, -0.035742517560720444, -0.008947143331170082, 0.13955138623714447, -0.06933517754077911, -0.060199074447155], [-0.19742240011692047, 0.15709958970546722, 0.05792621895670891, -0.0217001810669899, 0.2891766130924225, 0.04811345785856247, 0.16178782284259796, 0.29555976390838623, -0.08061907440423965, -0.007482700515538454], [-0.43328845500946045, 0.43525511026382446, -0.058076411485672, -0.09509924054145813, -0.010271565057337284, 0.15168818831443787, -0.03026461787521839, 0.28602203726768494, -0.04927143454551697, -0.04948878288269043], [0.21168388426303864, 0.3421424925327301, 0.2985195219516754, -0.15842020511627197, 0.22829701006412506, -0.10567650943994522, 0.16857066750526428, 0.20571884512901306, 0.46671345829963684, 0.12983867526054382], [0.33298081159591675, 0.0151417450979352, 0.19844511151313782, 0.2646937370300293, 0.14654526114463806, -0.022330744192004204, -0.1995668262243271, 0.16380718350410461, -0.08357670903205872, 0.06469833105802536], [-0.009819839149713516, 0.5391510128974915, -0.19302129745483398, 0.09662899374961853, 0.098927803337574, 0.09773224592208862, -0.27907609939575195, 0.04038241133093834, 0.2211383432149887, 0.09610795974731445], [-0.24233129620552063, 0.08883153647184372, 0.13913285732269287, 0.10806364566087723, -0.03297089785337448, -0.01416956726461649, 0.19911113381385803, -0.1421591192483902, -0.01611061953008175, 0.14120903611183167], [-0.182367205619812, 0.4122587740421295, -0.14309053122997284, 0.04796403646469116, -0.005124525632709265, 0.1219758540391922, -0.07661402970552444, -0.005711864680051804, 0.13036011159420013, 0.05637291818857193], [-0.15880046784877777, 0.18899472057819366, 0.14201895892620087, 0.04412572458386421, 0.20829714834690094, -0.02243128791451454, 0.09116432815790176, 0.3163493275642395, -0.33420267701148987, 0.001041807932779193], [0.02153068408370018, 0.047678664326667786, 0.11858745664358139, -0.38877102732658386, -0.10636305809020996, -0.08022933453321457, -0.07565388828516006, 0.1568654626607895, 0.2619553208351135, 0.026691552251577377], [0.3212926387786865, 0.11124067008495331, 0.1368013471364975, 0.26163703203201294, 0.10813359916210175, -0.1395788937807083, 0.1717853844165802, -0.09466824680566788, 0.0648779422044754, 0.011132200248539448], [-0.2054218202829361, 0.3199838399887085, -0.042538512498140335, 0.32305672764778137, 0.1290573924779892, 0.018348606303334236, -0.1741992086172104, -0.03987794369459152, 0.23359709978103638, -0.31319332122802734], [-0.06315399706363678, -0.12018086016178131, -0.1471991091966629, -0.1376446634531021, -0.001273874775506556, -0.2219773381948471, 0.22907526791095734, 0.1526179015636444, 0.17531074583530426, -0.027093837037682533], [-0.2894118130207062, 0.23220737278461456, 0.0018334463238716125, 0.20276707410812378, 0.13502946496009827, 0.22918258607387543, 0.033401958644390106, 0.06971840560436249, -0.028377320617437363, 0.2645556926727295], [-0.15875552594661713, 0.15405502915382385, -0.03309302777051926, -0.15110750496387482, 0.2567191421985626, -0.08284338563680649, 0.019705303013324738, 0.230849489569664, -0.027997776865959167, 0.012579589150846004], [-0.0696110799908638, -0.08734605461359024, -0.21703210473060608, -0.5393847227096558, 0.18769985437393188, -0.007251170929521322, -0.11676716804504395, 0.06366496533155441, 0.13960254192352295, -0.05897892639040947], [0.29645049571990967, -0.09046056121587753, 0.12342806905508041, 0.14477430284023285, -0.1453847736120224, -0.013396147638559341, -0.025041671469807625, 0.15245167911052704, 0.12877912819385529, 0.03985936939716339], [0.053892023861408234, 0.39063653349876404, 0.028509583324193954, 0.2401352822780609, 0.26414668560028076, -0.2092875987291336, 0.07443398237228394, -0.012995390221476555, 0.26888102293014526, -0.013715913519263268], [0.10060285776853561, 0.22816593945026398, 0.12614698708057404, -0.018744196742773056, 0.03787081688642502, 0.07762467116117477, -0.06496530026197433, -0.003361544106155634, 0.18635231256484985, 0.02406749688088894], [-0.15618100762367249, 0.12742869555950165, 0.0890001505613327, 0.2933546006679535, 0.1635514199733734, -0.09163863956928253, -0.012707616202533245, 0.33665451407432556, 0.18648521602153778, 0.1877138316631317], [-0.5205138921737671, 0.39419427514076233, -0.0011225424241274595, -0.11177528649568558, 0.23004767298698425, 0.31080955266952515, 0.09286395460367203, 0.06122084707021713, -0.17999877035617828, 0.007303413935005665], [0.022752750664949417, 0.24383246898651123, 0.060036551207304, -0.47976791858673096, -0.035275690257549286, 0.12778136134147644, 0.22997215390205383, -0.036579761654138565, 0.035960275679826736, 0.18847395479679108], [0.23183637857437134, 0.42514726519584656, 0.09191246330738068, 0.3576570749282837, 0.0733134001493454, -0.22163265943527222, 0.04152039438486099, -0.2233390361070633, -0.05917743220925331, 0.140380397439003], [-0.080507293343544, -0.040866244584321976, 0.039306312799453735, 0.5104926824569702, 0.182782381772995, -0.11796599626541138, -0.012478086166083813, 0.14856843650341034, -0.13265280425548553, 0.18485531210899353], [0.11214455962181091, -0.06268420815467834, -0.055207207798957825, -0.09375742077827454, 0.1890309602022171, -0.24346250295639038, 0.19464431703090668, -0.16747374832630157, -0.09642358124256134, -0.004591158591210842], [-0.20791786909103394, 0.002215145854279399, -0.168443962931633, 0.32036179304122925, 0.026699133217334747, -0.009098284877836704, -0.10264153778553009, -0.06758299469947815, -0.18667267262935638, -0.04227616265416145], [-0.13716189563274384, 0.4927152693271637, 0.15158019959926605, 0.2596428394317627, 0.20013989508152008, 0.34090083837509155, -0.23981034755706787, 0.07200771570205688, -0.3933115601539612, -0.04567243158817291], [-0.025834502652287483, -0.2527526617050171, -0.0813654214143753, -0.24160224199295044, -0.207246795296669, -0.11000948399305344, -0.09456293284893036, 0.22915658354759216, 0.4934779405593872, 0.15757526457309723], [0.2702023684978485, 0.18829753994941711, 0.015195442363619804, 0.2852623760700226, 0.05131761357188225, 0.08695989102125168, -0.3371627926826477, -0.20253042876720428, 0.13703058660030365, -0.08675851672887802], [0.023626305162906647, 0.055523116141557693, -0.24288804829120636, 0.4799412190914154, 0.22592400014400482, 0.33887022733688354, -0.09013243019580841, 0.2716565728187561, 0.10900797694921494, 0.3035180866718292], [-0.0785762295126915, 0.05946309491991997, 0.07645083963871002, 0.1564716398715973, -0.07819633930921555, -0.05740278214216232, 0.1787344366312027, 0.12558266520500183, -0.03242058306932449, -0.03863055631518364], [0.04012679308652878, 0.37973400950431824, 0.04750744253396988, -0.04664671793580055, 0.24641233682632446, 0.18818101286888123, -0.10578885674476624, -0.02139975316822529, -0.10288312286138535, 0.16326552629470825], [-0.553896963596344, 0.4246205687522888, -0.17140232026576996, 0.18435809016227722, -0.07253257185220718, 0.16131040453910828, -0.007316507864743471, 0.26585403084754944, -0.1354803591966629, 0.16668736934661865], [0.18594469130039215, 0.07054430991411209, 0.034066151827573776, -0.3365943133831024, 0.13505682349205017, -0.09268834441900253, -0.15347397327423096, 0.23811547458171844, 0.44273310899734497, -0.002835041144862771], [0.46856340765953064, 0.37322962284088135, -0.23838022351264954, 0.06064973026514053, 0.14086869359016418, -0.18289275467395782, -0.02857419103384018, -0.3157499134540558, 0.022757796570658684, -0.3128128945827484], [-0.27937784790992737, -0.18897706270217896, -0.0181687381118536, 0.43403124809265137, 0.06445442885160446, -0.03201109170913696, 0.013309032656252384, 0.30521631240844727, 0.13686710596084595, -0.13192106783390045], [0.12559527158737183, 0.216599240899086, 0.20658007264137268, -0.13897357881069183, -0.1323096603155136, 0.109229177236557, 0.06876251101493835, 0.17150765657424927, -0.19338610768318176, 0.1934618055820465], [-0.29034295678138733, 0.22432003915309906, 0.005056566093116999, 0.06733198463916779, -0.06912774592638016, 0.15679770708084106, 0.1456070840358734, -0.053015921264886856, -0.20264460146427155, 0.21933160722255707], [-0.6023853421211243, 0.14178572595119476, -0.13443510234355927, -0.13984179496765137, 0.2977866232395172, 0.28979504108428955, -0.24309875071048737, -0.04996778815984726, -0.007612889166921377, -0.15287800133228302], [-0.14385853707790375, -0.11144965887069702, 0.1384209841489792, -0.4735110104084015, 0.18976637721061707, 0.18766148388385773, -0.11099546402692795, -0.09083201736211777, 0.19584591686725616, 0.06061125174164772], [0.26056328415870667, 0.12178676575422287, -0.30262964963912964, -0.036972660571336746, 0.15274111926555634, -0.20648306608200073, -0.21528907120227814, -0.2860868275165558, -0.20276182889938354, -0.0018164397915825248], [-0.33235761523246765, -0.05308810994029045, 0.18295100331306458, 0.28715628385543823, 0.00907969381660223, 0.1370793581008911, -0.1329178512096405, 0.1349446028470993, -0.13460120558738708, -0.00780387781560421], [-0.11321044713258743, 0.6261395215988159, 0.22081267833709717, -0.3923271596431732, 0.2781188488006592, -0.15432097017765045, 0.27119261026382446, 0.03034287691116333, 0.12285982817411423, 0.09628383815288544], [-0.11948670446872711, 0.2915481925010681, 0.2042914181947708, 0.02675214782357216, -0.011857242323458195, 0.28591805696487427, 0.11207035928964615, 0.22650235891342163, -0.17088815569877625, 0.158750519156456], [-0.27746227383613586, 0.3182271718978882, 0.027809081599116325, -0.03602445498108864, -0.03947488218545914, 0.38010457158088684, 0.0487142838537693, 0.03125856816768646, -0.38226842880249023, 0.251660019159317], [-0.08412373065948486, -0.1210213154554367, 0.09246277064085007, -0.12307876348495483, -0.01788615994155407, -0.12942464649677277, 0.16351623833179474, -0.17418523132801056, 0.2793136537075043, 0.21122829616069794], [0.13780204951763153, -0.3681882917881012, -0.5812734365463257, 0.18971051275730133, 0.03809181600809097, -0.24875545501708984, -0.1899235099554062, 0.04649607092142105, -0.23217637836933136, -0.20677854120731354], [-0.3256116509437561, 0.21802392601966858, -0.01036704983562231, -0.05119038000702858, 0.02053258754312992, 0.13751892745494843, -0.32149505615234375, 0.020595122128725052, -0.2346525490283966, 0.09219374507665634], [0.06416846811771393, 0.6105156540870667, 0.4985063970088959, -0.2234209179878235, 0.34792351722717285, 0.07680527865886688, 0.26602205634117126, -0.11141479015350342, -0.18981261551380157, 0.31636008620262146]], [0.23860783874988556, 0.2774691581726074, -0.060174886137247086, 0.24776045978069305, 0.05009040981531143, -0.09327612072229385, -0.08532726764678955, -0.021734977141022682, 0.23717665672302246, -0.02880244329571724]]}, {"class_name": "Dense", "units": 1, "activation": "sigmoid", "weights": [[[-0.6851035952568054], [0.5610633492469788], [0.592873215675354], [-1.0357087850570679], [0.9070286154747009], [0.7917053699493408], [0.48846566677093506], [0.8415949940681458], [-1.004238247871399], [0.6813011169433594]], [-0.25425803661346436]]}]}