{"layers": [{"batch_input_shape": [null, 400], "class_name": "Reshape", "target_shape": [400, 1]}, {"class_name": "Conv1D", "strides": 1, "kernel_size": 3, "padding": "valid", "activation": "relu", "weights": [[[0.4786151647567749, -0.01348861027508974, -0.6932803988456726, -0.5231207609176636], [0.14701895415782928, -0.519343376159668, -0.4774347245693207, 0.5197263360023499], [-0.29388123750686646, -0.32816678285598755, -0.5175222754478455, -0.3198069632053375]], [0.14031332731246948, 0.16480666399002075, 0.112213633954525, 0.03922749683260918]]}, {"class_name": "MaxPooling1D", "pool_size": 2, "strides": 2}, {"class_name": "Conv1D", "strides": 1, "kernel_size": 3, "padding": "valid", "activation": "relu", "weights": [[[0.14623279869556427, -0.1629263162612915, -0.3542366027832031, -0.3932269215583801], [-0.1338377147912979, 0.3401762843132019, 0.5006421804428101, 0.5053247809410095], [0.05603323131799698, 0.4936670660972595, 0.3334270715713501, 0.02712804079055786], [0.46185845136642456, -0.26654258370399475, 0.3487352132797241, 0.11023111641407013], [0.13159871101379395, 0.547359049320221, -0.32100042700767517, -0.5871556997299194], [-0.4328220784664154, 0.2526686489582062, -0.5027723908424377, 0.4465819299221039], [-0.013238975778222084, -0.45007532835006714, -0.3386019468307495, 0.1648971438407898], [0.6379309296607971, 0.022649213671684265, 0.3368576467037201, 0.0665375143289566], [0.09440500289201736, -0.034135885536670685, 0.47789478302001953, -0.39125773310661316], [-0.5077605247497559, 0.1331714689731598, 0.48381340503692627, 0.06907590478658676], [0.22782325744628906, -0.07719355821609497, 0.12166525423526764, 0.2175002545118332], [0.2754468321800232, -0.2546667456626892, 0.02522917650640011, -0.3749881684780121]], [0.01252838410437107, 0.10157716274261475, 0.1348603367805481, 0.004051924217492342]]}, {"class_name": "MaxPooling1D", "pool_size": 2, "strides": 2}, {"class_name": "Conv1D", "strides": 1, "kernel_size": 3, "padding": "valid", "activation": "relu", "weights": [[[0.17812153697013855, -0.035214029252529144, -0.17132288217544556, 0.2785347104072571, 0.4462965130805969, 0.07646536827087402, -0.06067079305648804, -0.07181709259748459], [-0.18494541943073273, 0.2224757820367813, 0.413487046957016, -0.08217305690050125, 0.1969783902168274, -0.19293516874313354, 0.24573853611946106, 0.3472338616847992], [-0.15677373111248016, 0.19434621930122375, 0.09662798047065735, 0.4588949680328369, 0.1096467599272728, 0.25377357006073, 0.224315345287323, -0.18522678315639496], [0.36038869619369507, -0.1564694195985794, 0.19879931211471558, -0.023507455363869667, -0.34540626406669617, 0.269743412733078, 0.2613351345062256, -0.4308941960334778], [0.3164204955101013, 0.10801175981760025, -0.18000008165836334, -0.28256821632385254, 0.314039945602417, 0.020611919462680817, -0.31534621119499207, 0.23940786719322205], [-0.10368697345256805, -0.05997612327337265, -0.19613145291805267, -0.3541548550128937, 0.10459395498037338, -0.35581350326538086, 0.15764877200126648, 0.5821661949157715], [0.4794772267341614, -0.23570005595684052, 0.14379161596298218, -0.19737917184829712, 0.4624156355857849, -0.2873642146587372, 0.31723666191101074, -0.0923953652381897], [0.15812796354293823, -0.1881420612335205, -0.26535841822624207, 0.058729104697704315, -0.10691992193460464, 0.07096049934625626, -0.26658210158348083, -0.07927248626947403], [0.5883541107177734, -0.13235190510749817, -0.16975872218608856, -0.3822966516017914, 0.29834073781967163, 0.3137668967247009, -0.2865820825099945, -0.22777295112609863], [-0.06529001146554947, -0.23074179887771606, 0.2759568989276886, -0.035745248198509216, 0.07104292511940002, 0.21114800870418549, 0.33228790760040283, 0.4801401197910309], [0.16064231097698212, 0.4047100245952606, 0.26750579476356506, 0.469261109828949, 0.15878906846046448, 0.4175582826137543, 0.036120980978012085, 0.0887439176440239], [-0.11005593091249466, -0.453128844499588, -0.2363768219947815, -0.4097804129123688, -0.33390507102012634, -0.4897524118423462, -0.17171089351177216, -0.48118314146995544]], [0.05597016587853432, 0.04225928336381912, 0.08083511143922806, 0.050221193581819534, 0.06966779381036758, 0.07112541794776917, 0.08560290932655334, 0.1106286272406578]]}, {"class_name": "MaxPooling1D", "pool_size": 2, "strides": 2}, {"class_name": "Flatten"}, {"class_name": "Dense", "units": 3, "activation": "softmax", "weights": [[[0.2618778944015503, -0.20061920583248138, -0.015833726152777672], [-0.10570689290761948, 0.019550878554582596, -0.0006780682597309351], [-0.108266681432724, 0.032715220004320145, 0.1362784206867218], [-0.1299375593662262, 0.0637103021144867, 0.2517845928668976], [0.20204801857471466, -0.0412643663585186, -0.042093198746442795], [0.25562459230422974, -0.012539828196167946, -0.1607232391834259], [-0.1600111573934555, -0.190407857298851, 0.21121901273727417], [-0.267482191324234, -0.01122472807765007, 0.15932537615299225], [0.12640397250652313, 0.11616717278957367, -0.1986040323972702], [0.033727750182151794, 0.06185882166028023, 0.06115918606519699], [-0.2772075831890106, 0.0375448577105999, 0.12052136659622192], [0.30023571848869324, -0.05328579992055893, -0.02471889741718769], [0.0005865363054908812, -0.029188640415668488, -0.19550283253192902], [0.2582062780857086, 0.07738600671291351, -0.19661736488342285], [-0.22094383835792542, -0.19980764389038086, 0.1788577288389206], [-0.3024708330631256, 0.18669866025447845, 0.09041938930749893], [0.10187697410583496, 0.07473999261856079, -0.12206883728504181], [-0.16999199986457825, 0.03898828849196434, 0.05643808841705322], [-0.1387210637331009, 0.12336155772209167, 0.014471296221017838], [-0.12001162767410278, -0.05913049355149269, 0.015120214782655239], [0.13150328397750854, 0.13280236721038818, -0.09142604470252991], [0.009409450925886631, 0.03295712545514107, -0.10739925503730774], [-0.19808609783649445, -0.22978152334690094, 0.26027268171310425], [-0.20006191730499268, 0.1682579666376114, -0.05230836570262909], [-0.08810833096504211, 0.034913431853055954, -0.19520938396453857], [-0.18309898674488068, 0.16124527156352997, 0.048381756991147995], [-0.17200955748558044, -0.22097116708755493, 0.22996367514133453], [0.051040783524513245, -0.044500190764665604, -0.005784657318145037], [-0.013653548434376717, -0.009517013095319271, -0.1844349056482315], [0.0421212874352932, 0.1415868103504181, -0.11582503467798233], [-0.1415635049343109, -0.23990856111049652, 0.2800171971321106], [-0.23557211458683014, -0.07849277555942535, 0.2727016508579254], [0.12210110574960709, 0.20207273960113525, -0.17317932844161987], [-0.013899116776883602, 0.12948176264762878, 0.002496038330718875], [0.07015224546194077, -0.2599208354949951, 0.12364734709262848], [0.2141561359167099, 0.001776082324795425, -0.08387545496225357], [0.07119230180978775, 0.03828202933073044, -0.10854475945234299], [0.05529695376753807, 0.2589259743690491, -0.17381353676319122], [-0.012234062887728214, -0.25674694776535034, 0.24395522475242615], [-0.21491122245788574, 0.09319121390581131, -0.005927710793912411], [0.07400248199701309, 0.13377730548381805, -0.05031852051615715], [-0.1536903977394104, 0.06487900763750076, -0.2094992846250534], [-0.010169200599193573, -0.3001350462436676, 0.090016670525074], [0.0293129812926054, -0.22681747376918793, 0.02192738465964794], [0.03769728168845177, 0.07497577369213104, -0.14601187407970428], [0.08371675759553909, 0.14774952828884125, -0.06849110126495361], [0.10194072127342224, -0.23889991641044617, 0.234858438372612], [-0.21815912425518036, 0.0324958860874176, 0.17503952980041504], [0.05747910961508751, 0.09987068921327591, -0.03736415505409241], [-0.12779812514781952, 0.21188493072986603, 0.1774575412273407], [-0.07354426383972168, -0.24337512254714966, 0.28543633222579956], [0.024914296343922615, -0.13045339286327362, 0.03493683040142059], [0.05940523371100426, 0.07116232067346573, -0.21525757014751434], [-0.0806080773472786, 0.15090206265449524, -0.04011557623744011], [-0.030973445624113083, -0.19772399961948395, 0.27751025557518005], [-0.117884062230587, 0.13351872563362122, 0.10213087499141693], [-0.05027654394507408, 0.10876616835594177, -0.20402394235134125], [-0.06729011237621307, 0.11755486577749252, -0.03412823751568794], [0.00361976632848382, -0.05391450598835945, 0.21063454449176788], [0.009910031221807003, -0.027314025908708572, -0.06573975086212158], [-0.012268210761249065, 0.011510815471410751, -0.04454952850937843], [0.008410663343966007, -0.018185986205935478, 0.0022535009775310755], [-0.06759249418973923, -0.2166641801595688, 0.21706216037273407], [-0.23830212652683258, 0.09926101565361023, 0.03136991336941719], [0.12380101531744003, 0.08374811708927155, -0.05151563882827759], [-0.16371966898441315, 0.11544913798570633, -0.03445598483085632], [-0.017904264852404594, -0.08501819521188736, 0.21488022804260254], [0.10762042552232742, 0.05144933611154556, -0.13997848331928253], [-0.08896828442811966, -0.0013647909509018064, -0.05711321905255318], [-0.0006538540474139154, 0.06438875943422318, -0.3021143972873688], [-0.17006243765354156, -0.04945436492562294, 0.11138816177845001], [-0.2215535193681717, -0.04644637182354927, 0.1119336485862732], [0.11131531745195389, -0.08127755671739578, -0.08078762143850327], [0.1209586039185524, -0.02873600460588932, -0.06023220717906952], [-0.038387637585401535, -0.15498901903629303, 0.25459879636764526], [0.21329735219478607, 0.03245166689157486, -0.18852002918720245], [0.08504177629947662, 0.18070581555366516, -0.022417118772864342], [0.012400198727846146, -0.06316328793764114, -0.23624520003795624], [0.0007969830767251551, -0.14420102536678314, 0.31108084321022034], [-0.10310782492160797, 0.11431167274713516, 0.2195558249950409], [0.1793743520975113, 0.009214567020535469, -0.036469440907239914], [-0.05521917715668678, 0.2811847925186157, 0.0355936661362648], [-0.15575499832630157, -0.08997156471014023, 0.14421862363815308], [-0.03949347883462906, 0.01808006875216961, -0.13595916330814362], [0.11293401569128036, 0.15509454905986786, -0.1420748382806778], [0.07749085873365402, 0.11010781675577164, -0.1159026101231575], [-0.04310650750994682, -0.0307612307369709, 0.10651173442602158], [-0.26024529337882996, 0.048759229481220245, -0.014717861078679562], [0.18418143689632416, 0.04373253136873245, -0.14930346608161926], [-0.0979008674621582, -0.03064587153494358, 0.05180397629737854], [-0.036346226930618286, 0.0718608871102333, -0.00454157218337059], [0.09479369968175888, 0.040020640939474106, -0.21630242466926575], [-0.09452144056558609, -0.018772482872009277, -0.026582688093185425], [0.07135512679815292, -0.05362969636917114, -0.05422466620802879], [-0.1479160636663437, -0.11509300023317337, 0.03224923089146614], [-0.16228711605072021, 0.10627690702676773, 0.17797718942165375], [0.09084513038396835, -0.14285609126091003, -0.07548755407333374], [-0.14121200144290924, 0.17754121124744415, 0.09490407258272171], [-0.004995124414563179, -0.00498182000592351, -0.0387975350022316], [0.052128396928310394, 0.14511136710643768, -0.14322908222675323], [-0.06207633018493652, -0.031604088842868805, -0.0932391956448555], [0.1321556568145752, -0.008050226606428623, -0.017673278227448463], [-0.11656063050031662, -0.09575764089822769, 0.19689175486564636], [-0.14762677252292633, 0.13702194392681122, 0.1015186756849289], [0.009036288596689701, 0.03197423741221428, 0.04686741530895233], [-0.22085772454738617, 0.019529620185494423, 0.012696445919573307], [-0.19142258167266846, 0.12706820666790009, 0.1637042611837387], [-0.18414762616157532, 0.15798263251781464, -0.07692459970712662], [0.10599371045827866, 0.05937740206718445, 0.08214569836854935], [-0.0645182728767395, -0.11384323239326477, -0.06997451931238174], [-0.05343683809041977, 0.14060398936271667, 0.12184461206197739], [-0.27350476384162903, 0.22614286839962006, 0.11693447083234787], [0.11531004309654236, 0.00183407636359334, -0.033561646938323975], [-0.16255095601081848, 0.20102564990520477, 0.04620411992073059], [-0.05894314870238304, 0.10326526314020157, -0.10147888958454132], [0.02404838241636753, -0.01775975711643696, 0.017459498718380928], [-0.08157005161046982, 0.10079436004161835, 0.14077867567539215], [0.10094664245843887, 0.05012992024421692, 0.026350926607847214], [-0.1485346108675003, 0.19083835184574127, 0.1309272050857544], [-0.2667570412158966, 0.2500613331794739, -0.10010572522878647], [0.08948143571615219, -0.03308895602822304, 0.01413756888359785], [-0.10219061374664307, 0.050457119941711426, -0.04636378958821297], [-0.06611529737710953, 0.15668058395385742, 0.11193188279867172], [0.00014857958012726158, 0.1491202861070633, -0.09150537848472595], [-0.0164314154535532, -0.021262573078274727, 0.12461323291063309], [0.08689891546964645, 0.03296838700771332, -0.027941767126321793], [-0.2558717727661133, 0.21336761116981506, -0.00796236377209425], [-0.1767757534980774, 0.21955245733261108, 0.05840064212679863], [-0.0769263505935669, -0.08382990956306458, -0.00863638985902071], [-0.21672283113002777, -0.10050865262746811, 0.049299467355012894], [-0.15240837633609772, 0.004844482988119125, 0.09661366045475006], [-0.0455683209002018, 0.02386017143726349, -0.06237015128135681], [-0.1268744170665741, -0.0338074266910553, 0.09235020726919174], [0.13501939177513123, 0.030193889513611794, 0.04134245961904526], [-0.1747789978981018, 0.1741034984588623, 0.024869650602340698], [-0.269283652305603, 0.06670372188091278, 0.17806555330753326], [0.07034166157245636, 0.06496383249759674, -0.00761658838018775], [0.13446946442127228, -0.052823685109615326, 0.0865279957652092], [-0.16838432848453522, 0.020732901990413666, 0.13152217864990234], [-0.1872079223394394, 0.151945561170578, 0.05102498084306717], [-0.13992512226104736, 0.13545028865337372, 0.047865983098745346], [-0.10112965852022171, 0.06260529160499573, 0.047952257096767426], [-0.06703026592731476, -0.03377402946352959, 0.10669456422328949], [-0.20972101390361786, -0.02172001823782921, 0.016747472807765007], [0.036571286618709564, -0.03564470261335373, -0.024375393986701965], [-0.09336391091346741, -0.05063367262482643, 0.023718679323792458], [-0.0886831283569336, 0.1471036821603775, 0.1537366360425949], [-0.04866873472929001, 0.2014375627040863, -0.175639808177948], [-0.0897119864821434, -0.023173753172159195, 0.18742679059505463], [-0.18171918392181396, 0.12862777709960938, 0.16388213634490967], [-0.22296281158924103, 0.058309104293584824, -0.05603558197617531], [-0.1445872038602829, -0.008021818473935127, 0.07709317654371262], [-0.030481375753879547, -0.07626040279865265, 0.10539375245571136], [-0.16158178448677063, 0.019527284428477287, -0.024857310578227043], [-0.2047504484653473, 0.05401666834950447, 0.11819201707839966], [-0.14774946868419647, 0.21556977927684784, 0.06790963560342789], [-0.13519544899463654, -0.023228920996189117, -0.009852231480181217], [-0.03629237413406372, 0.18375304341316223, 0.12046987563371658], [-0.2125062793493271, -0.012265846133232117, -0.047239791601896286], [-0.12048641592264175, 0.033780720084905624, 0.16213001310825348], [0.06469772756099701, -0.08563303202390671, 0.2090144157409668], [-0.1284484565258026, -0.14891843497753143, 0.1117667481303215], [-0.16915352642536163, -0.04393286630511284, 0.09875717014074326], [-0.17911235988140106, 0.1357257217168808, 0.13215099275112152], [0.007907210849225521, -0.018891645595431328, -0.028408454731106758], [0.06341584771871567, -0.06886456161737442, 0.1390751153230667], [-0.12104891985654831, -0.00871204398572445, 0.06396465003490448], [-0.2810370624065399, 0.0919380635023117, 0.2123320996761322], [0.08572226017713547, -0.18561267852783203, 0.1297294795513153], [-0.1112808808684349, -0.04406182840466499, 0.1809459775686264], [0.03714838624000549, 0.06049332395195961, -0.06705699115991592], [-0.1430402547121048, 0.04594776779413223, -0.021557901054620743], [-0.14340922236442566, 0.003691058373078704, 0.11290888488292694], [-0.12999047338962555, 0.09925450384616852, 0.018207082524895668], [-0.012826276011765003, -0.021220017224550247, -0.0651920884847641], [-0.21805106103420258, -0.05656985938549042, 0.03745108097791672], [0.05710212141275406, -0.029106440022587776, -0.02081313356757164], [-0.27266448736190796, -0.1398250311613083, 0.15954038500785828], [-0.019080495461821556, -0.061882197856903076, 0.1645592600107193], [-0.13551253080368042, 0.09785067290067673, -0.06430219858884811], [-0.006701119244098663, 0.049473561346530914, 0.15748968720436096], [-0.1031518429517746, -0.08284089714288712, 0.13139690458774567], [-0.1553807109594345, 0.008824549615383148, 0.02865782380104065], [-0.022050222381949425, -0.03596733883023262, 0.006409905850887299], [-0.12393233925104141, -0.2017650008201599, 0.15904514491558075], [-0.08128783106803894, 0.005119106732308865, 0.14001449942588806], [-0.102986641228199, -0.1233503520488739, 0.12775075435638428], [-0.19670839607715607, 0.15908437967300415, -0.028180992230772972], [-0.17459852993488312, -0.040574006736278534, 0.008856958709657192], [-0.1441972851753235, 0.032236337661743164, 0.05523514747619629], [-0.102149099111557, -0.02354368381202221, -0.04172544553875923], [-0.12416914850473404, 0.04676615074276924, -0.06517825275659561], [0.07800070196390152, -0.10647094994783401, 0.13278111815452576], [-0.0062954057939350605, 0.054558590054512024, 0.13489754498004913], [-0.14575789868831635, 0.06157957762479782, 0.1264362335205078], [0.03979548066854477, -0.017054971307516098, -0.07388917356729507], [-0.15850093960762024, -0.0761633887887001, 0.1546134650707245], [0.117128387093544, -0.14268891513347626, -0.001243641134351492], [-0.07317700982093811, -0.09309865534305573, 0.07366300374269485], [-0.033616241067647934, 0.09051103889942169, -0.0577101856470108], [0.01184049341827631, -0.1789410263299942, 0.08229867368936539], [-0.16786564886569977, 0.009049336425960064, -0.027342071756720543], [-0.10237976908683777, 0.06857381761074066, 0.11064142733812332], [-0.25098133087158203, 0.09947231411933899, 0.006250836420804262], [-0.1523587554693222, -0.02563132904469967, -0.0032219698186963797], [0.09163139015436172, -0.030306516215205193, 0.07538633048534393], [0.021293053403496742, -0.061754923313856125, 0.16523370146751404], [-0.011257508769631386, -0.07215698808431625, 0.1270977407693863], [0.055791497230529785, -0.23126700520515442, 0.1458972990512848], [0.05553789064288139, -0.0418424978852272, 0.010001866146922112], [-0.13387726247310638, -0.12672780454158783, -0.056340791285037994], [0.06302511692047119, -0.02172885090112686, 0.05634371191263199], [-0.07738202810287476, -0.08729023486375809, 0.1611507683992386], [0.0382283478975296, -0.06947342306375504, -0.0624401792883873], [-0.0976085439324379, -0.014077188447117805, 0.18413372337818146], [-0.18702420592308044, -0.03636579215526581, 0.09343111515045166], [0.1162639856338501, -0.04333939030766487, 0.021344585344195366], [-0.26923877000808716, -0.09907487779855728, 0.1300608068704605], [-0.05635719746351242, -0.014134748838841915, 0.129283607006073], [0.12981131672859192, 0.030176028609275818, -0.06542570888996124], [-0.04505223408341408, 0.05578572675585747, -0.02790788561105728], [-0.03269706666469574, -0.24020658433437347, 0.011923565529286861], [-0.05307719111442566, -0.10570185631513596, 0.11578965187072754], [-0.18097268044948578, 0.08367935568094254, 0.12629060447216034], [0.18964846432209015, -0.0568554550409317, -0.04044697806239128], [-0.19085969030857086, -0.14756299555301666, 0.09273135662078857], [-0.10829658061265945, -0.1582302749156952, -0.022796547040343285], [-0.014856647700071335, -0.008807161822915077, 0.19602158665657043], [-0.07885625213384628, 0.014189042150974274, 0.12149851024150848], [0.1797861009836197, -0.10095673054456711, 0.03348672762513161], [-0.06538674235343933, -0.02717309072613716, 0.18299560248851776], [-0.13164451718330383, 0.1543886959552765, 0.08408945798873901], [0.0241288710385561, -0.16215075552463531, 0.08768276870250702], [-0.18222670257091522, 0.11979611217975616, 0.1168336346745491], [-0.0048042540438473225, -0.0393536202609539, 0.08625815063714981], [0.12851963937282562, 0.04797615110874176, 0.07220038026571274], [-0.13230228424072266, -0.028022512793540955, 0.18695645034313202], [-0.05938804894685745, -0.07044808566570282, 0.09331309050321579], [-0.12108797580003738, 0.052096083760261536, 0.19026532769203186], [-0.263846218585968, 0.07351884245872498, -0.06727389246225357], [0.002119815442711115, -0.0033037906978279352, 0.03651316091418266], [0.02480281889438629, 0.09270001947879791, 0.17558197677135468], [0.11410485208034515, 0.03714476898312569, 0.11713054031133652], [-0.0011918804375454783, 0.06644555181264877, 0.12535110116004944], [-0.03996049612760544, -0.15795990824699402, -0.042769987136125565], [0.1520015150308609, -0.20426759123802185, 0.0033405811991542578], [0.04637177288532257, -0.13629287481307983, 0.05302715301513672], [-0.20951740443706512, 0.2774483561515808, 0.05753525719046593], [0.12909507751464844, -0.013441625982522964, 0.1381656974554062], [-0.02878727577626705, -0.06831459701061249, 0.1208963617682457], [0.08754593133926392, -0.03919391334056854, -0.1372218281030655], [0.005756767932325602, -0.033108390867710114, -0.033526889979839325], [-0.08797366172075272, 0.027803536504507065, 0.17929762601852417], [0.030938630923628807, -0.046510860323905945, 0.00843007117509842], [-0.12176770716905594, -0.0238452460616827, -0.06611379235982895], [0.010780480690300465, 0.07372910529375076, -0.03704807162284851], [0.18879477679729462, -0.08635657280683517, -0.03415022790431976], [-0.14807388186454773, 0.12841400504112244, 0.006707866210490465], [0.011669732630252838, -0.021244898438453674, -0.12076903134584427], [0.0371922068297863, 0.030398882925510406, -0.006420880556106567], [-0.020686423406004906, -0.14065788686275482, 0.14294041693210602], [0.11643745005130768, 0.0059656500816345215, 0.009060940705239773], [0.05354885384440422, 0.04368323087692261, -0.006612858735024929], [-0.17715081572532654, 0.2510128915309906, 0.04390811547636986], [0.12782545387744904, 0.0013435152359306812, 0.05237238481640816], [-0.1302797645330429, -0.0016545880353078246, -0.14937755465507507], [-0.08199258893728256, 0.1356307417154312, 0.052230238914489746], [0.020231423899531364, -0.11809208244085312, -0.07592093199491501], [0.10883767902851105, -0.022038191556930542, 0.12854930758476257], [0.14754480123519897, 0.032150477170944214, -0.047110527753829956], [-0.11759375035762787, 0.03698481619358063, -0.0011578314006328583], [-0.11221621185541153, 0.2215641289949417, 0.023803450167179108], [0.13559824228286743, -0.11755197495222092, -0.06084022670984268], [-0.06488798558712006, 0.14309163391590118, -0.1695859432220459], [-0.038820408284664154, -0.03998694196343422, -0.0863751620054245], [-0.02202298678457737, -0.10457073897123337, -0.15217025578022003], [-0.06572707742452621, 0.0621480867266655, -0.07032393664121628], [0.16945990920066833, -0.21718785166740417, -0.1453714668750763], [-0.015285712666809559, -0.07119976729154587, -0.02632059156894684], [-0.15699423849582672, 0.06393307447433472, 0.11301572620868683], [0.035313356667757034, -0.12137241661548615, -0.005310625769197941], [-0.1878206729888916, 0.010655040852725506, 0.10526103526353836], [-0.08809180557727814, 0.16723206639289856, 0.17332379519939423], [0.13433820009231567, 0.023360179737210274, -0.0016807925421744585], [-0.023198438808321953, -0.14229674637317657, 0.019043587148189545], [0.030426088720560074, -0.03754027187824249, -0.10675082355737686], [-0.07581432163715363, 0.057928360998630524, -0.0735778883099556], [-0.1487608104944229, 0.214086651802063, 0.0023396220058202744], [0.21750172972679138, -0.07648130506277084, -0.13507230579853058], [-0.015812747180461884, 0.13946104049682617, 0.03763149306178093], [0.1086474061012268, -0.018337268382310867, -0.09979046881198883], [0.022537674754858017, 0.05693243816494942, 0.02311832644045353], [0.13858048617839813, -0.1523992121219635, -0.026528866961598396], [0.08296490460634232, -0.18495476245880127, -0.17855176329612732], [-0.1315157264471054, -0.0589136965572834, 0.06959649920463562], [-0.04335582256317139, 0.047103725373744965, -0.033540982753038406], [0.102584607899189, -0.137575164437294, -0.011826381087303162], [-0.002989786444231868, 0.20696626603603363, -0.0762380063533783], [-0.0022217147052288055, 0.11636649817228317, 0.04046220704913139], [0.1876649409532547, -0.10002850741147995, -0.21465133130550385], [0.1297808438539505, -0.005451972130686045, 0.08289515227079391], [0.18464334309101105, -0.07259559631347656, -0.16538484394550323], [-0.18731771409511566, -0.01843905821442604, 0.009061786346137524], [-0.03084801882505417, 0.1396413892507553, -0.13162827491760254], [0.14135988056659698, -0.2173537015914917, -0.09225323051214218], [-0.022127598524093628, 0.024137554690241814, -0.1463540494441986], [-0.018108930438756943, -0.019562439993023872, -0.019913772121071815], [-0.00844959169626236, 0.03062765672802925, -0.07624263316392899], [0.07883542776107788, -0.004917552694678307, 0.0540585033595562], [0.055788397789001465, -0.014114854857325554, 0.03687375783920288], [-0.1795167624950409, -0.057524099946022034, 0.033382777124643326], [-0.29338014125823975, 0.10632715374231339, -0.03446907550096512], [0.10643550008535385, -0.06711271405220032, 0.0036414898931980133], [-0.11536557972431183, 0.14560149610042572, 0.011658936738967896], [-0.16288340091705322, 0.10663961619138718, -0.12256598472595215], [-0.007623919285833836, -0.022138306871056557, -0.12110373377799988], [-0.0858205184340477, -0.09943316131830215, 0.04167584329843521], [0.1149115115404129, -0.03149542585015297, -0.08353953063488007], [-0.029310060665011406, -0.04266589134931564, 0.026994170621037483], [-0.06369755417108536, 0.2144320011138916, -0.16166570782661438], [0.08039877563714981, -0.06016011908650398, -0.047401346266269684], [0.01960110105574131, 0.14675363898277283, -0.09838449954986572], [-0.02678690291941166, 0.17650917172431946, -0.018309475854039192], [0.07242249697446823, 0.02935507521033287, -0.11477550119161606], [-0.05919267237186432, 0.09910514205694199, 0.048919886350631714], [-0.02223757468163967, -0.1782655566930771, -0.08914259076118469], [-0.025148386135697365, 0.12410043925046921, -0.005906272679567337], [-0.16064074635505676, 0.18752357363700867, 0.11512836813926697], [0.16324582695960999, -0.22141841053962708, 0.06217195838689804], [-0.016101405024528503, 0.11634326726198196, -0.01171087846159935], [-0.03261926770210266, 0.05783505365252495, 0.05583573877811432], [0.0941733568906784, -0.1356159746646881, -0.018568895757198334], [0.0322030745446682, 0.03281514719128609, 0.0024995466228574514], [-0.016563110053539276, -0.08183396607637405, -0.053386278450489044], [-0.09880337864160538, -0.07986684888601303, 0.15739218890666962], [-0.11111725866794586, 0.1720355749130249, -0.1064433753490448], [0.13265587389469147, -0.09817986935377121, 0.09221979975700378], [0.022994572296738625, -0.06532841920852661, -0.10949938744306564], [-0.25099968910217285, -0.0376482792198658, -0.04844306409358978], [-0.05880259349942207, -0.16288524866104126, 0.06378192454576492], [-0.06743735074996948, -0.09812697023153305, -0.033995866775512695], [0.0398198738694191, -0.09465455263853073, 0.02567693032324314], [-0.004126694053411484, -0.0005319275078363717, 0.06067602336406708], [-0.2207225114107132, 0.22914008796215057, -0.011810222640633583], [0.1411895602941513, -0.055249135941267014, 0.009668057784438133], [0.012428644113242626, 0.11452966183423996, -0.12018726766109467], [-0.04395649954676628, 0.12245384603738785, 0.05419796332716942], [0.042646557092666626, -0.03199424222111702, -0.014829779975116253], [-0.0105512086302042, -0.057750631123781204, -0.08619686961174011], [-0.05630746856331825, 0.06100916862487793, 0.11864025145769119], [-0.1381140947341919, 0.14940990507602692, 0.06895231455564499], [-0.16989149153232574, 0.06054791808128357, 0.01458583865314722], [-0.008257263340055943, -0.24207623302936554, -0.011655502021312714], [-0.14986594021320343, 0.07505115121603012, 0.12000592797994614], [-0.04906309396028519, -0.0729755312204361, 0.06439085304737091], [-0.024968838319182396, 0.03458705544471741, 0.09776868671178818], [0.09952864050865173, -0.10478384047746658, -0.058278582990169525], [0.009036310017108917, 0.03607350215315819, 0.1836141049861908], [-0.09198638796806335, -0.0724881961941719, 0.21450383961200714], [-0.043344736099243164, -0.07602924853563309, -0.03028150275349617], [0.08618208020925522, -0.023260541260242462, 0.08573776483535767], [-0.2365371286869049, -0.04236067831516266, 0.22679507732391357], [-0.18342095613479614, -0.11723041534423828, 0.045837998390197754], [-0.08544398099184036, 0.04635261371731758, 0.19683720171451569], [0.08143133670091629, -0.054278671741485596, 0.09079492092132568], [-0.11383145302534103, -0.0762123093008995, 0.12124238163232803], [-0.08654839545488358, 0.005321772303432226, 0.1951454132795334], [-0.17317616939544678, 0.025188690051436424, -0.07151058316230774], [-0.02214144356548786, -0.14492814242839813, 0.05265507474541664], [-0.054917700588703156, -0.13254159688949585, 0.08393871784210205], [-0.12812113761901855, -0.09352188557386398, 0.06003484129905701], [0.03354087844491005, 0.06957656145095825, 0.06797649711370468], [-0.14620879292488098, -0.17970319092273712, 0.14345933496952057], [-0.07105755805969238, 0.028059808537364006, 0.17705826461315155], [-0.0241631381213665, -0.092591792345047, 0.2020067423582077], [-0.1868819147348404, 0.009578783996403217, -0.03484185039997101], [0.11083273589611053, -0.10342027246952057, 0.10368182510137558], [-0.09819099307060242, -0.15251918137073517, 0.0025974332820624113], [-0.14217323064804077, -0.02692931704223156, 0.12766841053962708], [-0.03503447771072388, -0.07205124944448471, 0.238213911652565], [0.0027450670022517443, -0.07566802948713303, -0.0003756607766263187], [0.13241231441497803, -0.04590874910354614, 0.17792440950870514], [-0.06435056030750275, -0.1899099498987198, 0.003187083173543215], [-0.13272763788700104, 0.014411446638405323, 0.015056761913001537]], [0.03220156207680702, -0.06455033272504807, 0.044414907693862915]]}]}